digraph Tree {
node [shape=box] ;
0 [label=<Genre &le; 1.5<br/>gini = 0.471<br/>samples = 712<br/>value = [441, 271]<br/>class = Mort>] ;
1 [label=<Age &le; 9.5<br/>gini = 0.288<br/>samples = 459<br/>value = [379, 80]<br/>class = Mort>] ;
0 -> 1 [labeldistance=2.5, labelangle=45, headlabel="True"] ;
2 [label=<Pclass &le; 2.5<br/>gini = 0.463<br/>samples = 22<br/>value = [8, 14]<br/>class = Vivant>] ;
1 -> 2 ;
3 [label=<gini = 0.0<br/>samples = 9<br/>value = [0, 9]<br/>class = Vivant>] ;
2 -> 3 ;
4 [label=<Age &le; 0.71<br/>gini = 0.473<br/>samples = 13<br/>value = [8, 5]<br/>class = Mort>] ;
2 -> 4 ;
5 [label=<gini = 0.0<br/>samples = 1<br/>value = [0, 1]<br/>class = Vivant>] ;
4 -> 5 ;
6 [label=<Age &le; 2.5<br/>gini = 0.444<br/>samples = 12<br/>value = [8, 4]<br/>class = Mort>] ;
4 -> 6 ;
7 [label=<gini = 0.0<br/>samples = 4<br/>value = [4, 0]<br/>class = Mort>] ;
6 -> 7 ;
8 [label=<Age &le; 3.5<br/>gini = 0.5<br/>samples = 8<br/>value = [4, 4]<br/>class = Mort>] ;
6 -> 8 ;
9 [label=<gini = 0.0<br/>samples = 2<br/>value = [0, 2]<br/>class = Vivant>] ;
8 -> 9 ;
10 [label=<gini = 0.444<br/>samples = 6<br/>value = [4, 2]<br/>class = Mort>] ;
8 -> 10 ;
11 [label=<Pclass &le; 1.5<br/>gini = 0.256<br/>samples = 437<br/>value = [371, 66]<br/>class = Mort>] ;
1 -> 11 ;
12 [label=<Age &le; 43.0<br/>gini = 0.457<br/>samples = 99<br/>value = [64, 35]<br/>class = Mort>] ;
11 -> 12 ;
13 [label=<Age &le; 17.5<br/>gini = 0.493<br/>samples = 61<br/>value = [34, 27]<br/>class = Mort>] ;
12 -> 13 ;
14 [label=<gini = 0.0<br/>samples = 2<br/>value = [0, 2]<br/>class = Vivant>] ;
13 -> 14 ;
15 [label=<Age &le; 22.0<br/>gini = 0.488<br/>samples = 59<br/>value = [34, 25]<br/>class = Mort>] ;
13 -> 15 ;
16 [label=<gini = 0.0<br/>samples = 4<br/>value = [4, 0]<br/>class = Mort>] ;
15 -> 16 ;
17 [label=<gini = 0.496<br/>samples = 55<br/>value = [30, 25]<br/>class = Mort>] ;
15 -> 17 ;
18 [label=<Age &le; 75.5<br/>gini = 0.332<br/>samples = 38<br/>value = [30, 8]<br/>class = Mort>] ;
12 -> 18 ;
19 [label=<Age &le; 47.5<br/>gini = 0.307<br/>samples = 37<br/>value = [30, 7]<br/>class = Mort>] ;
18 -> 19 ;
20 [label=<gini = 0.0<br/>samples = 10<br/>value = [10, 0]<br/>class = Mort>] ;
19 -> 20 ;
21 [label=<gini = 0.384<br/>samples = 27<br/>value = [20, 7]<br/>class = Mort>] ;
19 -> 21 ;
22 [label=<gini = 0.0<br/>samples = 1<br/>value = [0, 1]<br/>class = Vivant>] ;
18 -> 22 ;
23 [label=<Age &le; 32.25<br/>gini = 0.167<br/>samples = 338<br/>value = [307, 31]<br/>class = Mort>] ;
11 -> 23 ;
24 [label=<Age &le; 30.5<br/>gini = 0.19<br/>samples = 254<br/>value = [227, 27]<br/>class = Mort>] ;
23 -> 24 ;
25 [label=<Age &le; 20.5<br/>gini = 0.162<br/>samples = 236<br/>value = [215, 21]<br/>class = Mort>] ;
24 -> 25 ;
26 [label=<gini = 0.229<br/>samples = 53<br/>value = [46, 7]<br/>class = Mort>] ;
25 -> 26 ;
27 [label=<gini = 0.141<br/>samples = 183<br/>value = [169, 14]<br/>class = Mort>] ;
25 -> 27 ;
28 [label=<Pclass &le; 2.5<br/>gini = 0.444<br/>samples = 18<br/>value = [12, 6]<br/>class = Mort>] ;
24 -> 28 ;
29 [label=<gini = 0.408<br/>samples = 7<br/>value = [5, 2]<br/>class = Mort>] ;
28 -> 29 ;
30 [label=<gini = 0.463<br/>samples = 11<br/>value = [7, 4]<br/>class = Mort>] ;
28 -> 30 ;
31 [label=<Age &le; 38.5<br/>gini = 0.091<br/>samples = 84<br/>value = [80, 4]<br/>class = Mort>] ;
23 -> 31 ;
32 [label=<gini = 0.0<br/>samples = 31<br/>value = [31, 0]<br/>class = Mort>] ;
31 -> 32 ;
33 [label=<Age &le; 61.5<br/>gini = 0.14<br/>samples = 53<br/>value = [49, 4]<br/>class = Mort>] ;
31 -> 33 ;
34 [label=<gini = 0.12<br/>samples = 47<br/>value = [44, 3]<br/>class = Mort>] ;
33 -> 34 ;
35 [label=<gini = 0.278<br/>samples = 6<br/>value = [5, 1]<br/>class = Mort>] ;
33 -> 35 ;
36 [label=<Pclass &le; 2.5<br/>gini = 0.37<br/>samples = 253<br/>value = [62, 191]<br/>class = Vivant>] ;
0 -> 36 [labeldistance=2.5, labelangle=-45, headlabel="False"] ;
37 [label=<Age &le; 2.5<br/>gini = 0.097<br/>samples = 137<br/>value = [7, 130]<br/>class = Vivant>] ;
36 -> 37 ;
38 [label=<Pclass &le; 1.5<br/>gini = 0.5<br/>samples = 2<br/>value = [1, 1]<br/>class = Mort>] ;
37 -> 38 ;
39 [label=<gini = 0.0<br/>samples = 1<br/>value = [1, 0]<br/>class = Mort>] ;
38 -> 39 ;
40 [label=<gini = 0.0<br/>samples = 1<br/>value = [0, 1]<br/>class = Vivant>] ;
38 -> 40 ;
41 [label=<Age &le; 56.5<br/>gini = 0.085<br/>samples = 135<br/>value = [6, 129]<br/>class = Vivant>] ;
37 -> 41 ;
42 [label=<Age &le; 24.5<br/>gini = 0.074<br/>samples = 130<br/>value = [5, 125]<br/>class = Vivant>] ;
41 -> 42 ;
43 [label=<gini = 0.0<br/>samples = 39<br/>value = [0, 39]<br/>class = Vivant>] ;
42 -> 43 ;
44 [label=<Age &le; 27.5<br/>gini = 0.104<br/>samples = 91<br/>value = [5, 86]<br/>class = Vivant>] ;
42 -> 44 ;
45 [label=<gini = 0.49<br/>samples = 7<br/>value = [3, 4]<br/>class = Vivant>] ;
44 -> 45 ;
46 [label=<gini = 0.046<br/>samples = 84<br/>value = [2, 82]<br/>class = Vivant>] ;
44 -> 46 ;
47 [label=<Pclass &le; 1.5<br/>gini = 0.32<br/>samples = 5<br/>value = [1, 4]<br/>class = Vivant>] ;
41 -> 47 ;
48 [label=<gini = 0.0<br/>samples = 4<br/>value = [0, 4]<br/>class = Vivant>] ;
47 -> 48 ;
49 [label=<gini = 0.0<br/>samples = 1<br/>value = [1, 0]<br/>class = Mort>] ;
47 -> 49 ;
50 [label=<Age &le; 38.5<br/>gini = 0.499<br/>samples = 116<br/>value = [55, 61]<br/>class = Vivant>] ;
36 -> 50 ;
51 [label=<Age &le; 1.5<br/>gini = 0.491<br/>samples = 106<br/>value = [46, 60]<br/>class = Vivant>] ;
50 -> 51 ;
52 [label=<gini = 0.0<br/>samples = 4<br/>value = [0, 4]<br/>class = Vivant>] ;
51 -> 52 ;
53 [label=<Age &le; 3.5<br/>gini = 0.495<br/>samples = 102<br/>value = [46, 56]<br/>class = Vivant>] ;
51 -> 53 ;
54 [label=<Age &le; 2.5<br/>gini = 0.32<br/>samples = 5<br/>value = [4, 1]<br/>class = Mort>] ;
53 -> 54 ;
55 [label=<gini = 0.375<br/>samples = 4<br/>value = [3, 1]<br/>class = Mort>] ;
54 -> 55 ;
56 [label=<gini = 0.0<br/>samples = 1<br/>value = [1, 0]<br/>class = Mort>] ;
54 -> 56 ;
57 [label=<Age &le; 5.5<br/>gini = 0.491<br/>samples = 97<br/>value = [42, 55]<br/>class = Vivant>] ;
53 -> 57 ;
58 [label=<gini = 0.0<br/>samples = 5<br/>value = [0, 5]<br/>class = Vivant>] ;
57 -> 58 ;
59 [label=<gini = 0.496<br/>samples = 92<br/>value = [42, 50]<br/>class = Vivant>] ;
57 -> 59 ;
60 [label=<Age &le; 55.5<br/>gini = 0.18<br/>samples = 10<br/>value = [9, 1]<br/>class = Mort>] ;
50 -> 60 ;
61 [label=<gini = 0.0<br/>samples = 9<br/>value = [9, 0]<br/>class = Mort>] ;
60 -> 61 ;
62 [label=<gini = 0.0<br/>samples = 1<br/>value = [0, 1]<br/>class = Vivant>] ;
60 -> 62 ;
}